svm_type c_svc
kernel_type linear
nr_class 4
total_sv 22
rho -0.0480635 -0.217842 0.391959 -0.336646 -0.0495791 0.252411
label 0 1 2 3
probA -1.88745 -2.1254 -2.36987 -2.04168 -1.90723 -2.32953
probB -0.576314 -0.529486 -0.839141 -0.0306526 0.137131 -0.518783
nr_sv 11 5 4 2
SV
0.02257274708711762 0.003258035477904275 0.009358635877539745 1:0.42829773 2:1.2948998 3:0.30828841 4:0.30923144 5:0.34010284 6:0.13962242 7:1.007257 8:0.35019415 9:0.82250147 10:-0.13884988 11:0.54167946 12:-1.0686742 13:-0.6627653 14:0.37979385 15:0.65589575 16:0.39725586 17:0.34696126 18:0.33047151 19:-0.062492033 20:0.59219018 21:1.4661223 22:-1.1473269 23:-0.77768705 24:-0.96761034 25:0.97494266 26:-0.53498372 27:-0.80466632 28:0.54238708 29:-0.91126974 30:0.075624919 31:0.0041578796 32:1.0336278 33:-0.035799453 34:0.20593878 35:0.85085057 36:1.4351485 37:-0.33149176 38:1.001486 39:1.204532 40:1.0069895 41:1.1662462 42:1.1417276 43:1.4077992 44:-0.65124668 45:-0.27727789 46:-1.0480765 47:-0.96942302 48:-0.40481711 49:-0.090225989 50:0.6560428 51:-0.92121961 52:-1.3949878 53:-0.81653534 54:0.082889209 55:-1.8374522 56:-0.75669388 57:-0.67408461 58:-0.36917269 59:0.29240575 60:-0.49462731 61:-0.93593979 62:0.21246452 63:-0.41933492 64:-0.23888047 65:-0.13396978 66:1.6669337 67:-0.18098947 68:-0.17521195 
0 0 0.01045242138341635 1:-0.14104376 2:-0.12945552 3:-4.7229557 4:1.6773703 5:-1.2260665 6:1.352458 7:-0.37372062 8:0.91321163 9:0.22929002 10:-1.5366053 11:1.6926886 12:1.5590759 13:0.16895987 14:0.18660178 15:1.4668489 16:0.42712515 17:4.470996 18:0.74152254 19:0.48800801 20:1.1628201 21:0.58788554 22:-1.2593565 23:-1.0883605 24:0.65505798 25:-1.2521441 26:-0.71970406 27:-1.8081251 28:3.417904 29:-1.6657426 30:-1.4580006 31:-1.2986647 32:-0.86662876 33:-1.037074 34:3.0530168 35:1.0316168 36:0.54248999 37:2.6926618 38:0.78852251 39:-0.022559312 40:1.7534993 41:-0.31536137 42:0.5581423 43:-0.30488862 44:1.0837543 45:0.68894136 46:3.507425 47:-0.99996351 48:-0.41877604 49:0.65390885 50:-0.68561337 51:1.5203853 52:-0.11924485 53:0.99902229 54:-0.65305636 55:-1.338364 56:-1.0000122 57:-0.84200502 58:0.59121896 59:-0.96637085 60:-1.5580531 61:-1.7702331 62:3.9922826 63:-0.82262683 64:-0.79303559 65:-0.74575052 66:-0.82278847 67:-1.1051719 68:4.4787948 
0 0 0.03893171234057265 1:1.2005335 2:-0.81012218 3:0.16170958 4:0.97226583 5:0.34238066 6:1.1542218 7:-0.29223736 8:0.90641488 9:-0.46758485 10:-1.3097374 11:-0.45543147 12:0.35211631 13:0.45529036 14:1.2310832 15:0.28736364 16:0.060372679 17:-0.10153544 18:1.3255763 19:0.035460705 20:0.54808269 21:0.63972577 22:-0.90277159 23:-0.93657049 24:-1.7625377 25:-0.92864128 26:-0.45057982 27:0.029356444 28:0.1160265 29:1.4621089 30:-0.43213241 31:0.085305003 32:0.59607932 33:-0.16571571 34:-0.97359358 35:-0.58443548 36:-0.3752978 37:0.20631551 38:-0.62419737 39:0.2067856 40:0.32871731 41:-0.29516872 42:0.40502995 43:-0.20078189 44:2.8623429 45:-0.11919467 46:-0.49939786 47:-0.96475135 48:-1.5622027 49:-0.14823726 50:-1.5844501 51:2.2426771 52:-0.90599624 53:-0.33908214 54:-0.82325979 55:-0.94453558 56:-0.68946137 57:-0.70286083 58:-1.1009928 59:-0.75607709 60:-0.63699409 61:0.74018917 62:0.39351462 63:0.082979247 64:-0.35670028 65:-0.42034926 66:0.87774469 67:-0.83611405 68:0.015854299 
0.007944910759456364 0 0.01300850249275504 1:1.7023605 2:1.4664929 3:0.54962485 4:1.2675786 5:1.4476378 6:1.2984481 7:-0.3559568 8:1.5588088 9:1.302908 10:-0.57774261 11:-0.62013395 12:0.57869608 13:0.78200842 14:0.57022851 15:0.9099897 16:0.51742608 17:0.5847547 18:0.39052848 19:0.4502773 20:0.54168183 21:0.37768063 22:-0.54520621 23:-0.67502816 24:-0.08111596 25:-0.5858884 26:-0.45116052 27:-0.29062191 28:1.1807875 29:0.22570257 30:-0.57222396 31:0.060671989 32:-0.040916988 33:-0.35055027 34:0.02045472 35:-0.83439138 36:0.28286957 37:-0.63386236 38:-0.91183498 39:-0.69130684 40:-0.56794019 41:-0.32294993 42:-1.0367584 43:-0.52489223 44:-1.2890853 45:-0.98831902 46:-1.1889 47:-0.23562567 48:-0.6830076 49:-0.77076665 50:-0.4487729 51:-0.56301027 52:-0.047406169 53:-0.34168384 54:-0.054261481 55:-0.19467101 56:-0.74916985 57:-0.67880931 58:-0.18132245 59:-0.55377056 60:-0.63264915 61:-0.45322599 62:0.54037832 63:-0.09966006 64:-0.60473436 65:-0.33672258 66:-0.20948729 67:-0.53236492 68:0.12504663 
0 1.008307160966154e-08 0 1:0.18623728 2:3.0811456 3:0.86345138 4:0.98389171 5:1.4045532 6:0.62941485 7:-0.4618789 8:1.1828158 9:1.5641772 10:-0.6916372 11:-0.076140134 12:1.9718787 13:1.9083546 14:-0.16492483 15:0.1594386 16:1.1839342 17:-0.081395182 18:-0.92734231 19:0.2283892 20:-0.9960017 21:-1.5304991 22:-0.13195018 23:-1.0743943 24:-1.1408973 25:0.17681521 26:-0.4911957 27:-0.49018728 28:1.0527556 29:-0.50674349 30:-1.4333596 31:-1.5157418 32:1.1524024 33:0.85628684 34:-0.9117419 35:-1.9724506 36:-0.41220919 37:-1.4518021 38:-1.111707 39:-0.63595688 40:-2.7747186 41:-0.32553169 42:-2.3476588 43:-0.57855793 44:-1.5732102 45:-1.6561809 46:-2.0493293 47:-2.1464138 48:-2.5061862 49:-1.6089147 50:-2.3596131 51:-2.0820679 52:-2.6619514 53:-1.88942 54:-2.6460415 55:-0.67543399 56:-0.5271623 57:-0.78370551 58:-2.024044 59:-0.84816533 60:-0.77588875 61:-1.4905894 62:-2.5518258 63:-0.77511672 64:-0.76762915 65:-0.84854095 66:-1.9761921 67:0.0017430526 68:-2.6367575 
0 0 0.005704368504640575 1:0.020259036 2:-0.83976699 3:-0.6748536 4:-0.70281322 5:-1.9639789 6:0.24715767 7:3.2794307 8:0.080327409 9:-1.1228775 10:-0.85596207 11:-0.79628487 12:0.70571831 13:0.53265117 14:0.7244806 15:0.96415901 16:1.1353352 17:1.3975816 18:1.0810623 19:0.97942638 20:0.13232671 21:-0.75702619 22:-0.54903218 23:-0.56895674 24:0.79575788 25:-0.7017139 26:-0.61091487 27:-1.0675577 28:-0.20137752 29:0.080559959 30:-0.78278841 31:-0.60986446 32:1.269662 33:0.16160904 34:-0.13163826 35:1.5016685 36:-0.8868251 37:0.9850269 38:2.8588872 39:3.3690609 40:1.4509561 41:3.3350564 42:0.51662566 43:3.3232138 44:1.0798148 45:-1.2044797 46:0.14634532 47:-0.35640543 48:-1.1804239 49:-1.2229118 50:1.3723488 51:1.3866498 52:-0.83548416 53:-2.0356407 54:-0.63410008 55:0.15919043 56:-0.63879172 57:-0.59157401 58:0.56538806 59:-0.59962224 60:-0.98723956 61:-0.86876266 62:0.41048471 63:-0.20838361 64:-0.75630493 65:-0.50810886 66:1.402667 67:-0.082952648 68:0.63828623 
0.003166639304633203 0 0.07871224137571546 1:0.16052234 2:-0.50184446 3:0.15087404 4:0.71145883 5:1.0323742 6:0.26270294 7:-0.25807339 8:0.15157993 9:0.14721865 10:-0.83650706 11:-0.52702885 12:0.9430957 13:0.66004548 14:0.54952274 15:0.33600536 16:0.23354365 17:-0.12528627 18:0.73074469 19:0.88685361 20:0.74954626 21:0.14522136 22:-1.1037222 23:-0.61227925 24:-1.2299996 25:-1.0649515 26:-0.57561073 27:-0.5931904 28:-0.24846251 29:-0.63149876 30:-0.93119403 31:-0.28916047 32:2.0877977 33:-1.0106886 34:-0.019231604 35:0.75915115 36:-0.47150151 37:-0.35927938 38:-0.69916062 39:-0.48090755 40:1.2718531 41:-0.29863395 42:1.2970434 43:-0.4211808 44:-0.89284101 45:-1.0784843 46:-0.40352921 47:0.15380787 48:-1.4319762 49:-0.35980409 50:-0.56861935 51:0.29386745 52:0.44394899 53:-0.94058284 54:-0.8626521 55:-0.86358619 56:-0.86939554 57:-0.51872406 58:-0.85608343 59:-0.85214836 60:-0.65491318 61:-0.67338116 62:0.091497619 63:-0.33253385 64:-0.70197125 65:-0.33387224 66:1.6122324 67:-0.61316857 68:-0.29530326 
0 0.005517854066763173 0 1:1.0359657 2:1.509899 3:0.6269556 4:0.93740932 5:1.1597822 6:0.96809011 7:-0.33532918 8:1.0376972 9:1.270228 10:-0.50410261 11:-0.54951976 12:0.50876036 13:0.66067027 14:0.12238964 15:0.57817764 16:0.56745288 17:0.65370861 18:0.5067054 19:0.89039589 20:0.68948059 21:0.85318845 22:-0.37665686 23:-0.47794653 24:-0.34125645 25:-0.77634053 26:-0.38585717 27:-0.42673788 28:1.5840449 29:-0.49034936 30:-0.39924772 31:-0.60070969 32:0.22910126 33:-0.27336336 34:0.85791769 35:-0.12437159 36:1.3372541 37:-0.78388165 38:-0.68405149 39:-0.62285727 40:0.15944283 41:-0.30673653 42:0.41656052 43:-0.50272842 44:-1.2272332 45:-0.61017396 46:-0.45202984 47:-1.0290098 48:-0.30995888 49:-0.37177979 50:-0.19753384 51:-0.96579906 52:0.28418377 53:-1.3173895 54:-0.42060726 55:-0.012190513 56:-0.4931112 57:-0.55375005 58:-0.40325549 59:-0.74780701 60:-0.4931354 61:-0.71128375 62:0.55406774 63:-0.41586537 64:-0.51128318 65:-0.48626481 66:0.70231906 67:-0.50419184 68:-0.015406451 
0.003751864845029581 0.004724166951580522 0 1:0.18623728 2:3.0811456 3:0.86345138 4:0.98389171 5:1.4045532 6:0.62941485 7:-0.4618789 8:1.1828158 9:1.5641772 10:-0.6916372 11:-0.076140134 12:1.9718787 13:1.9083546 14:-0.16492483 15:0.1594386 16:1.1839342 17:-0.081395182 18:-0.92734231 19:0.2283892 20:-0.9960017 21:-1.5304991 22:-0.13195018 23:-1.0743943 24:-1.1408973 25:0.17681521 26:-0.4911957 27:-0.49018728 28:1.0527556 29:-0.50674349 30:-1.4333596 31:-1.5157418 32:1.1524024 33:0.85628684 34:-0.9117419 35:-1.9724506 36:-0.41220919 37:-1.4518021 38:-1.111707 39:-0.63595688 40:-2.7747186 41:-0.32553169 42:-2.3476588 43:-0.57855793 44:-1.5732102 45:-1.6561809 46:-2.0493293 47:-2.1464138 48:-2.5061862 49:-1.6089147 50:-2.3596131 51:-2.0820679 52:-2.6619514 53:-1.88942 54:-2.6460415 55:-0.67543399 56:-0.5271623 57:-0.78370551 58:-2.024044 59:-0.84816533 60:-0.77588875 61:-1.4905894 62:-2.5518258 63:-0.77511672 64:-0.76762915 65:-0.84854095 66:-1.9761921 67:0.0017430526 68:-2.6367575 
0 0 0.0002552707406675078 1:0.30218827 2:-0.52760103 3:-0.22463879 4:-0.07667182 5:-1.8852303 6:0.62936017 7:3.9743731 8:0.65901344 9:-0.5838934 10:-1.2928643 11:-0.56642602 12:0.59769167 13:0.66834592 14:0.16238246 15:0.71674287 16:0.64672135 17:0.96635198 18:0.52175795 19:1.0738433 20:0.76994291 21:0.65112618 22:-1.3400873 23:-0.43043544 24:-1.456837 25:-0.65999055 26:-0.54652506 27:-0.3823836 28:0.089235989 29:-0.046272369 30:0.66251336 31:-0.89298258 32:1.7184958 33:-0.1979952 34:0.90545153 35:1.2621613 36:-0.57528906 37:0.50297296 38:3.1706524 39:3.474319 40:1.8559873 41:3.846933 42:1.0820171 43:3.6350788 44:0.80705228 45:-0.6169085 46:-0.22091199 47:0.10341959 48:-0.30295988 49:-0.43196854 50:0.26040795 51:-2.7773712 52:-0.60182891 53:0.20526803 54:-1.2039904 55:-1.8794605 56:-0.92348771 57:-0.49781771 58:0.086301078 59:-0.36514096 60:-0.57990078 61:-0.49790818 62:1.764447 63:-0.44463025 64:0.16797855 65:-0.61756612 66:2.3094133 67:-0.76866865 68:1.0838519 
0.02061353940168723 0.03021014051430221 0.06931897707724276 1:1.3586946 2:-0.75103305 3:0.464764 4:0.76750844 5:0.49191741 6:1.4625751 7:-0.33801952 8:1.2568828 9:-0.13600499 10:-0.37892487 11:-0.26191651 12:0.21668894 13:0.11757125 14:-0.13832145 15:0.45887279 16:0.021867791 17:0.6855989 18:1.8080182 19:0.46111017 20:0.072784474 21:-0.12185165 22:0.096350293 23:-0.20692091 24:-0.21840726 25:-0.61736882 26:-0.64149567 27:0.65939188 28:0.078548549 29:0.30564635 30:-0.34414075 31:0.20156023 32:-0.037475885 33:-0.31384043 34:-0.57837541 35:-0.56787013 36:-0.55785287 37:0.32279906 38:-0.21330041 39:-0.30254894 40:-0.21872437 41:-0.29585962 42:-0.14920973 43:-0.24969376 44:0.28596609 45:-0.36525371 46:0.31799649 47:-0.45270575 48:-0.021780992 49:-0.32772013 50:-0.92036677 51:-0.70131064 52:-0.46321047 53:0.059749084 54:-0.6294107 55:-0.65295469 56:-0.43692955 57:-0.26709843 58:1.1095038 59:-0.92923052 60:-1.6671088 61:1.3767279 62:0.71827331 63:-0.43891139 64:-0.64102962 65:-0.53290565 66:-0.41460662 67:-0.3013998 68:-0.19311695 
-8.182368883000556e-07 0 0 1:-0.76661809 2:0.098199543 3:0.22612473 4:-0.91207586 5:-0.12122781 6:-1.1053976 7:-0.26002279 8:-0.88302595 9:0.40240004 10:1.6944597 11:-0.071893894 12:-0.31640186 13:-1.3026419 14:0.029415984 15:1.0736575 16:1.0433024 17:0.76332314 18:1.2649727 19:0.9222203 20:0.51984276 21:0.82224796 22:0.13869365 23:1.638344 24:0.1029087 25:0.2324011 26:0.21996046 27:0.032521924 28:-1.3388974 29:-0.47132385 30:2.9119368 31:1.048579 32:-0.4876361 33:0.19459545 34:-1.1978973 35:1.2071195 36:1.0389871 37:-0.24648373 38:0.60548362 39:-0.25875742 40:0.73156258 41:-0.30102008 42:1.3292955 43:-0.18863303 44:0.39276363 45:1.5403494 46:0.14313729 47:1.8451827 48:0.1276004 49:2.0523677 50:-0.37609314 51:0.7451709 52:-1.0107992 53:0.43675666 54:-0.42808761 55:0.19671101 56:0.78488248 57:1.7183566 58:0.21785582 59:0.25032598 60:0.94847429 61:1.1112508 62:0.232124 63:-0.1133645 64:2.4802254 65:0.75634036 66:-0.057033031 67:0.33321229 68:-0.014575763 
-2.177188049366779e-07 0 0 1:0.099087012 2:-0.089328737 3:0.68288491 4:0.26244892 5:0.69335812 6:-0.26924826 7:-0.28825249 8:-0.017692954 9:0.39486634 10:0.2303321 11:-0.83446544 12:-1.1269949 13:0.17782278 14:0.29753933 15:0.2022024 16:0.2136506 17:-0.51191898 18:-1.2188545 19:-0.74061703 20:-1.2066817 21:-0.31367478 22:-1.1437358 23:0.49241384 24:0.013264012 25:1.2376997 26:-0.40900109 27:-0.7862935 28:0.33919542 29:0.28561847 30:0.25249687 31:-0.75501412 32:-0.17572604 33:-1.4654905 34:0.050294686 35:-0.40869144 36:0.21383241 37:-0.9154493 38:-0.31105204 39:-0.43540484 40:-0.70236209 41:-0.31272918 42:-0.61073898 43:-0.38073561 44:-0.9821999 45:-0.22346811 46:0.59360638 47:-0.6534853 48:-0.10876413 49:-1.1320922 50:-0.29725557 51:-1.7090038 52:0.2205632 53:0.22769415 54:0.61672706 55:-0.42451813 56:-0.90712404 57:0.81253346 58:-0.78985764 59:0.8733779 60:-0.30309639 61:-1.1941353 62:-0.67449316 63:0.1497356 64:0.38532362 65:-0.68442749 66:-0.61007771 67:-1.1898854 68:-1.1287041 
-0.01527673187304427 0.01167195723420297 0.01316267260181158 1:-0.76661809 2:0.098199543 3:0.22612473 4:-0.91207586 5:-0.12122781 6:-1.1053976 7:-0.26002279 8:-0.88302595 9:0.40240004 10:1.6944597 11:-0.071893894 12:-0.31640186 13:-1.3026419 14:0.029415984 15:1.0736575 16:1.0433024 17:0.76332314 18:1.2649727 19:0.9222203 20:0.51984276 21:0.82224796 22:0.13869365 23:1.638344 24:0.1029087 25:0.2324011 26:0.21996046 27:0.032521924 28:-1.3388974 29:-0.47132385 30:2.9119368 31:1.048579 32:-0.4876361 33:0.19459545 34:-1.1978973 35:1.2071195 36:1.0389871 37:-0.24648373 38:0.60548362 39:-0.25875742 40:0.73156258 41:-0.30102008 42:1.3292955 43:-0.18863303 44:0.39276363 45:1.5403494 46:0.14313729 47:1.8451827 48:0.1276004 49:2.0523677 50:-0.37609314 51:0.7451709 52:-1.0107992 53:0.43675666 54:-0.42808761 55:0.19671101 56:0.78488248 57:1.7183566 58:0.21785582 59:0.25032598 60:0.94847429 61:1.1112508 62:0.232124 63:-0.1133645 64:2.4802254 65:0.75634036 66:-0.057033031 67:0.33321229 68:-0.014575763 
-0.04277193356918648 0.01730355530581953 0.02882635017492268 1:0.099087012 2:-0.089328737 3:0.68288491 4:0.26244892 5:0.69335812 6:-0.26924826 7:-0.28825249 8:-0.017692954 9:0.39486634 10:0.2303321 11:-0.83446544 12:-1.1269949 13:0.17782278 14:0.29753933 15:0.2022024 16:0.2136506 17:-0.51191898 18:-1.2188545 19:-0.74061703 20:-1.2066817 21:-0.31367478 22:-1.1437358 23:0.49241384 24:0.013264012 25:1.2376997 26:-0.40900109 27:-0.7862935 28:0.33919542 29:0.28561847 30:0.25249687 31:-0.75501412 32:-0.17572604 33:-1.4654905 34:0.050294686 35:-0.40869144 36:0.21383241 37:-0.9154493 38:-0.31105204 39:-0.43540484 40:-0.70236209 41:-0.31272918 42:-0.61073898 43:-0.38073561 44:-0.9821999 45:-0.22346811 46:0.59360638 47:-0.6534853 48:-0.10876413 49:-1.1320922 50:-0.29725557 51:-1.7090038 52:0.2205632 53:0.22769415 54:0.61672706 55:-0.42451813 56:-0.90712404 57:0.81253346 58:-0.78985764 59:0.8733779 60:-0.30309639 61:-1.1941353 62:-0.67449316 63:0.1497356 64:0.38532362 65:-0.68442749 66:-0.61007771 67:-1.1898854 68:-1.1287041 
-0 0.01575503964386407 0.008571888515059039 1:-0.68952522 2:-0.97913294 3:-0.26101236 4:-0.24439877 5:0.70566627 6:-0.62583036 7:-0.2287994 8:-0.6864396 9:-2.2747197 10:0.72238491 11:-0.60080403 12:-0.30887394 13:0.24666243 14:0.82172609 15:0.92251414 16:0.040325414 17:-0.67762667 18:-1.7567674 19:-1.8623787 20:-0.7855737 21:-0.86283912 22:1.4651704 23:0.2497957 24:1.7456656 25:1.6763007 26:-0.28752221 27:-0.04230982 28:-0.45400505 29:0.89921309 30:-0.74481089 31:-0.39583607 32:-0.39094116 33:0.20173851 34:0.22498738 35:0.43161483 36:-0.80682546 37:0.16587341 38:0.19609671 39:-0.30133347 40:0.12950419 41:-0.30018992 42:0.9547637 43:-0.23367877 44:-0.42853495 45:0.51525667 46:0.76461819 47:0.30278611 48:0.73621307 49:0.12353784 50:0.020318318 51:0.25644863 52:1.70534 53:0.89641971 54:0.44746831 55:0.81214775 56:1.2564865 57:0.40822168 58:1.6596188 59:2.0175077 60:0.42700152 61:0.77197427 62:0.012633805 63:0.73662885 64:-0.44363715 65:-0.27225106 66:-0.023527688 67:1.0231442 68:-0.086477625 
-3.151719933576082e-07 -0 0 1:-0.10215257 2:-0.44392709 3:0.85181833 4:-0.14495722 5:0.49527915 6:-0.24397191 7:-0.33115677 8:-0.3433946 9:0.24256249 10:0.55192949 11:0.44470994 12:-0.91501219 13:0.00040896302 14:-0.37983011 15:-0.66143344 16:-0.61780979 17:-1.2662585 18:0.19367922 19:0.061736406 20:0.84674007 21:-0.39560658 22:1.774168 23:0.31541086 24:-0.46168431 25:-0.56629635 26:-0.095768154 27:1.9451037 28:0.6590639 29:-0.026547572 30:-0.30152347 31:-0.3912262 32:-0.25630235 33:1.1596085 34:-0.17955439 35:-0.8016269 36:-0.66485899 37:-0.74994399 38:-0.65329006 39:-0.57760445 40:-0.64152141 41:-0.31600141 42:-0.95506299 43:-0.43129217 44:-0.79537619 45:-0.30454063 46:-0.56778683 47:-0.25686599 48:-0.033439531 49:-0.40783414 50:-0.51296946 51:-0.077897437 52:0.058621931 53:0.028700271 54:0.25548306 55:0.19288456 56:1.6160075 57:0.00512854 58:-0.49570236 59:-0.19366675 60:0.75861504 61:1.8708818 62:-0.055741574 63:-0.17681955 64:-0.3118821 65:-0.39413376 66:-0.44389551 67:0.64500836 68:-0.27600167 
-0 -1.604391830575811e-06 0 1:-1.4433551 2:0.23861145 3:0.55203421 4:-1.3273516 5:-1.0497576 6:-1.1175409 7:-0.35799467 8:-1.2457765 9:0.63961414 10:1.0960005 11:2.1464899 12:-0.39867307 13:-1.495033 14:-2.2526113 15:-2.1491967 16:-2.0598731 17:-1.0703464 18:-1.4338037 19:-0.88474123 20:-0.065664249 21:0.96707268 22:1.2847107 23:0.028740462 24:0.50844805 25:0.098717393 26:2.3877619 27:1.6510886 28:-0.65118811 29:-0.42748423 30:0.35911768 31:-0.30867018 32:-1.4410957 33:1.4657423 34:1.3593446 35:-1.2194262 36:-0.25588247 37:-0.72037841 38:-0.57722398 39:-0.40949541 40:-1.030836 41:-0.31765825 42:-1.2567012 43:-0.41829001 44:-0.79493478 45:-0.35129331 46:-0.45526157 47:0.00022800514 48:0.026473678 49:-0.22844123 50:0.043434947 51:-0.023706442 52:0.29950591 53:0.13999616 54:0.35867066 55:0.30132484 56:0.39199296 57:-0.32713105 58:-0.16067173 59:-0.085323983 60:1.8565505 61:0.99404555 62:-0.76072946 63:-0.2278245 64:-0.18551826 65:-0.49749265 66:-1.1791786 67:0.81776948 68:-0.24033876 
-0.04370989192162844 -0.03891787919143432 0.03610087507044686 1:-0.10215257 2:-0.44392709 3:0.85181833 4:-0.14495722 5:0.49527915 6:-0.24397191 7:-0.33115677 8:-0.3433946 9:0.24256249 10:0.55192949 11:0.44470994 12:-0.91501219 13:0.00040896302 14:-0.37983011 15:-0.66143344 16:-0.61780979 17:-1.2662585 18:0.19367922 19:0.061736406 20:0.84674007 21:-0.39560658 22:1.774168 23:0.31541086 24:-0.46168431 25:-0.56629635 26:-0.095768154 27:1.9451037 28:0.6590639 29:-0.026547572 30:-0.30152347 31:-0.3912262 32:-0.25630235 33:1.1596085 34:-0.17955439 35:-0.8016269 36:-0.66485899 37:-0.74994399 38:-0.65329006 39:-0.57760445 40:-0.64152141 41:-0.31600141 42:-0.95506299 43:-0.43129217 44:-0.79537619 45:-0.30454063 46:-0.56778683 47:-0.25686599 48:-0.033439531 49:-0.40783414 50:-0.51296946 51:-0.077897437 52:0.058621931 53:0.028700271 54:0.25548306 55:0.19288456 56:1.6160075 57:0.00512854 58:-0.49570236 59:-0.19366675 60:0.75861504 61:1.8708818 62:-0.055741574 63:-0.17681955 64:-0.3118821 65:-0.39413376 66:-0.44389551 67:0.64500836 68:-0.27600167 
-0 -0.005811068600621677 0 1:-1.4433551 2:0.23861145 3:0.55203421 4:-1.3273516 5:-1.0497576 6:-1.1175409 7:-0.35799467 8:-1.2457765 9:0.63961414 10:1.0960005 11:2.1464899 12:-0.39867307 13:-1.495033 14:-2.2526113 15:-2.1491967 16:-2.0598731 17:-1.0703464 18:-1.4338037 19:-0.88474123 20:-0.065664249 21:0.96707268 22:1.2847107 23:0.028740462 24:0.50844805 25:0.098717393 26:2.3877619 27:1.6510886 28:-0.65118811 29:-0.42748423 30:0.35911768 31:-0.30867018 32:-1.4410957 33:1.4657423 34:1.3593446 35:-1.2194262 36:-0.25588247 37:-0.72037841 38:-0.57722398 39:-0.40949541 40:-1.030836 41:-0.31765825 42:-1.2567012 43:-0.41829001 44:-0.79493478 45:-0.35129331 46:-0.45526157 47:0.00022800514 48:0.026473678 49:-0.22844123 50:0.043434947 51:-0.023706442 52:0.29950591 53:0.13999616 54:0.35867066 55:0.30132484 56:0.39199296 57:-0.32713105 58:-0.16067173 59:-0.085323983 60:1.8565505 61:0.99404555 62:-0.76072946 63:-0.2278245 64:-0.18551826 65:-0.49749265 66:-1.1791786 67:0.81776948 68:-0.24033876 
-0.01390055104045026 -0 -0 1:1.5893378 2:-1.0027996 3:-1.8772537 4:1.4685492 5:0.73071607 6:1.4936294 7:-0.31066391 8:1.6301661 9:-2.3200385 10:-0.81680336 11:-0.5928509 12:0.65670642 13:0.96951358 14:0.51352452 15:0.52013565 16:0.087511005 17:0.022853966 18:0.52760137 19:0.68137178 20:0.46915241 21:0.27249998 22:-0.53714259 23:-0.56798328 24:-0.28759657 25:-0.59771251 26:-0.45246331 27:-0.44057141 28:0.23180725 29:0.60248808 30:-0.18465439 31:0.31048011 32:-0.32200677 33:0.52059626 34:-1.0917857 35:0.10777569 36:-0.97053456 37:2.5092229 38:0.28524724 39:-0.22883266 40:0.12256557 41:-0.30714446 42:0.066987639 43:0.085867606 44:1.0323077 45:1.1121041 46:0.26951719 47:0.44480137 48:0.37059571 49:-0.18645028 50:-0.25588398 51:0.34689592 52:-0.12025934 53:0.09111212 54:-0.022509717 55:0.18259859 56:-0.53213282 57:-0.531054 58:0.48015529 59:-0.47873888 60:-0.77907031 61:-0.51894628 62:0.43661825 63:-0.12872353 64:-0.41995661 65:-0.044171247 66:-0.19733291 67:0.72984535 68:0.76626433 
-0.2118415787520998 -0.0505609112917933 -0.03610087507044686 1:0.76318699 2:-0.8794564 3:-0.025993798 4:0.54257794 5:0.53388369 6:0.59935294 7:-0.29620334 8:0.39663084 9:-0.66242294 10:-0.88248503 11:-0.50731361 12:0.76861984 13:0.24255254 14:0.69241416 15:0.020413006 16:0.3856022 17:-0.039488065 18:0.38460022 19:0.70172383 20:0.46966276 21:0.31020833 22:-0.63849092 23:-0.68320194 24:-0.48887938 25:-0.66269329 26:-0.4488818 27:-0.28934534 28:0.25122644 29:-0.38914829 30:-0.50257857 31:-0.00068790437 32:0.80160434 33:-0.79875728 34:-0.43471626 35:-0.062741463 36:-0.80198911 37:0.014648532 38:-0.52268758 39:-0.16929719 40:0.29769452 41:-0.30489378 42:0.18885684 43:-0.30117219 44:0.68827867 45:-0.2954845 46:-0.2592241 47:0.059382114 48:0.59702102 49:0.47287392 50:0.089864948 51:0.24925609 52:0.047876002 53:0.054720933 54:-0.02835075 55:-0.63730404 56:-0.5816767 57:-0.55954532 58:-0.45667116 59:-0.59390262 60:-0.33049215 61:-0.22013595 62:0.38261346 63:-0.42225488 64:-0.43751358 65:-0.027764899 66:0.66410861 67:-0.59375333 68:0.20060912 
